0.02878383
0.03098880
-0.00634502
-0.00649208
0.01608891
0.00063533
0.03428069
-0.01072664
-0.00592393
0.01049840
-0.02629269
0.02647288
-0.02233861
-0.00096936
-0.00232715
0.00062056
-0.01112615
-0.00888921
0.00095134
0.00549795
0.02526154
-0.02672706
0.00622370
-0.03239499
-0.01207899
0.01044853
-0.01340379
-0.00000539
0.03155807
0.00470280
-0.02486824
0.02520627
-0.00821656
-0.01776242
0.03527779
-0.02078698
-0.00162502
-0.02437922
0.00348645
-0.01105646
-0.00464830
-0.00294601
0.00359911
0.00248003
0.02313892
-0.02548235
-0.01433315
0.01693064
-0.03338955
0.00310863
0.00908698
0.02079812
0.00393733
0.00590688
-0.00647087
0.01551482
0.01495170
-0.00538744
0.01631462
-0.00726571
-0.01631172
-0.01544484
0.01974245
-0.01812709
0.01754474
-0.02571849
-0.00037388
-0.00149208
-0.02956770
-0.02220692
0.02310013
-0.00611484
0.01515131
0.00108187
-0.01669475
0.00869587
-0.02467246
0.01140826
0.00113547
-0.00253436
-0.01535114
0.00908247
0.01700432
-0.01232115
0.01003979
0.04040335
0.01446228
-0.01044140
0.00262814
0.01005742
-0.02819815
0.00556208
0.01014883
-0.00371492
-0.01272579
0.01561749
0.00517453
0.01389478
-0.00726014
-0.00714401
0.01497832
-0.00790112
-0.01991885
-0.00061301
0.00009328
-0.00514922
0.00338001
0.02559115
-0.00894194
-0.02726762
0.00385315
-0.02323182
0.00436620
0.00190256
-0.01121543
-0.01796243
0.01251348
-0.00859187
-0.02768353
0.00107620
-0.01383901
-0.01469852
-0.00720036
0.00402849
0.01725804
-0.00436333
-0.00012402
-0.03579139
0.03340116
0.00969435
-0.00743250
-0.02347589
-0.03623379
0.02701160
-0.02288541
-0.00646732
0.01833487
0.00454721
-0.01212464
-0.01782829
-0.00876094
0.01403294
0.00083308
0.00891530
0.02362087
-0.01264542
0.01076447
0.02195425
0.00403158
-0.00899484
0.01243934
0.00290023
-0.00163006
0.00847688
0.00749896
0.02936688
-0.00198102
-0.02088700
0.00825896
-0.00458446
0.02815625
-0.01507000
0.00096618
-0.01321482
0.02792535
0.00677067
-0.01462520
0.00900303
-0.01851958
-0.00728872
-0.00745666
-0.00720645
0.02669627
-0.02949798
0.00362562
0.01573115
-0.01584819
0.00205371
0.00380049
0.01651455
-0.01950382
-0.02120470
0.00919754
0.00389610
-0.00952529
-0.00792414
-0.01435224
0.00483387
0.00461474
0.01726805
-0.01646351
0.02167051
0.02019619
-0.00018342
-0.02878126
-0.00676853
-0.03076436
-0.00716218
-0.01952980
0.01907779
-0.00308719
-0.01757522
-0.00191092
-0.02958563
0.01448561
-0.02454670
0.01210183
-0.01213251
0.00946690
0.00951027
0.00165879
-0.00135293
0.01616468
-0.02959661
-0.00553600
0.00660903
-0.00194447
-0.01139948
0.00675289
-0.00380217
-0.00868012
0.00998858
-0.02243170
-0.02398205
-0.00280483
0.00646130
-0.02984675
0.00176012
-0.03037557
0.02303062
0.02274341
0.00376558
-0.01751048
0.01975600
0.00753722
0.02040713
0.01422158
0.02136336
0.00709397
-0.02256550
0.01000453
0.00556179
0.01238318
-0.01577086
0.01895543
-0.02916817
0.00802957
0.00027929
-0.02308956
-0.01147247
-0.01970431
-0.02369411
-0.00596421
0.00691158
0.03499593
-0.00796795
-0.02054812
0.00920765
0.02456840
0.02829977
-0.01092967
-0.02034679
0.00393732
-0.01351326
-0.00506154
0.00711554
-0.01058805
-0.00356498
0.01845821
-0.00290995
-0.01273254
-0.02097981
0.01549364
0.00007467
-0.00227012
0.00806262
-0.01744218
-0.00021517
-0.00774687
-0.02404047
0.02323209
0.00405835
0.01116397
0.00062824
-0.01304684
-0.01712088
-0.03043847
0.01718877
-0.00008477
0.02162951
0.02007271
0.01238828
-0.00764398
0.01638251
0.02967691
-0.01221707
0.00902558
-0.00465913
-0.01388652
-0.00352134
-0.00227331
-0.02459134
-0.01049465
-0.02636697
0.01275374
-0.00257531
-0.01217443
-0.03469737
-0.00400592
0.00223034
-0.02195703
-0.02765184
0.01141041
-0.02228094
0.01146929
-0.01919600
0.01065339
0.00193111
-0.01329774
0.00618513
0.02889138
-0.00288665
0.00216402
0.00311149
0.03396867
0.00720236
0.01219283
0.01428678
0.03019132
-0.00286076
0.02092351
-0.03063291
0.01373716
0.00213611
0.00446025
0.02916214
0.00410978
-0.00129876
0.01284244
-0.01299856
0.00906583
-0.02843181
-0.00448263
-0.00095343
0.01320315
0.03546673
0.01230637
0.00745198
-0.00114861
-0.00009924
-0.00194561
0.00536393
0.00186318
0.00909125
0.02728587
0.01256036
0.00497158
0.03413890
-0.01744777
-0.00290457
0.02994859
-0.01361241
-0.00986915
-0.01441891
0.00387361
-0.01871328
-0.00297335
-0.01581980
-0.00104539
0.01234581
-0.00297229
0.00074744
0.03972484
0.01941890
-0.00886708
-0.00142595
-0.01225674
0.02107209
-0.01199913
0.01088835
-0.02971824
-0.01298762
-0.03563981
0.01054138
0.02255798
-0.03007875
-0.00310879
0.00314097
0.02182103
-0.01802640
0.01784577
-0.01573215
0.02570635
0.00570903
0.02476414
0.03061288
0.01661825
0.00116945
-0.03288276
-0.01517098
0.00657693
0.00143378
-0.00199791
-0.00060031
0.00209481
-0.00500508
0.01397670
0.00342101
-0.03318905
-0.03306928
-0.01330641
0.00001520
-0.01152741
-0.00046975
0.01199488
-0.00755994
0.00436631
0.01627470
0.00685775
0.01284521
0.01252689
-0.00633378
-0.00492693
0.01711688
-0.00659225
-0.01044124
0.00153694
-0.02480309
0.01106426
0.00251402
0.01039935
-0.01023594
0.01612732
0.01403587
-0.00579781
0.01856627
-0.02717804
0.00824656
-0.02552406
-0.01471324
-0.01984156
0.00417439
-0.00394220
0.00247232
-0.00554612
-0.01569105
-0.00709408
-0.01098450
-0.02326252
0.00181288
0.01676276
0.01486047
0.00177616
-0.00389517
0.02594969
-0.02658598
0.00336174
-0.00814840
0.01680664
-0.01457802
0.00558081
-0.02801236
-0.01076602
-0.00797741
0.02847203
0.01722167
0.01241571
0.01714567
0.02730861
-0.03303825
-0.00404769
0.02108632
-0.01833591
-0.00976680
-0.01510061
0.01862706
0.00247935
0.02457517
0.01733692
-0.01525256
0.02079136
0.00078902
0.00136309
0.03107853
0.01815234
-0.03592360
-0.01382613
-0.00737202
-0.03054570
0.01893863
-0.00299358
0.01954637
0.00031410
-0.01748715
-0.02412621
-0.01281824
0.01275278
-0.01880242
0.00639875
0.02614233
0.00847707
-0.03263750
0.01742386
0.00984704
0.01929316
-0.00337006
0.01333798
-0.03653279
-0.00556478
-0.00352370
0.01077601
-0.02979496
-0.00055193
0.03214342
0.00321469
-0.02530881
0.00572569
-0.01802089
-0.01128476
-0.01216305
0.01601723
0.00415576
-0.01810672
-0.03300649
-0.01780098
-0.00377655
0.01034820
-0.02822127
0.01806738
0.01717475
-0.00473195
-0.00782572
-0.01660306
-0.02989747
0.00071110
0.01017599
-0.00607555
-0.02953404
0.01377512
-0.02978222
-0.02749429
-0.00013813
0.02548574
0.01687858
-0.02136068
0.01116192
-0.00997381
0.00650370
0.00018855
0.01254825
0.02000572
-0.01804352
0.00673391
0.00795815
0.02364618
-0.00301653
0.02189112
-0.02897731
-0.00350137
0.01386961
0.02543068
0.02207888
0.01908451
-0.02034282
-0.00926720
-0.01714097
-0.01953273
0.02995615
0.00102400
-0.01028970
-0.01330552
-0.01013722
-0.01060995
0.00148623
-0.00880313
0.00630913
-0.03339307
0.00600403
-0.01527245
-0.00066980
-0.00594246
0.00158010
-0.00633279
-0.00912247
-0.00740475
0.00386944
0.00621006
0.00552448
-0.02164502
0.02924234
0.01662006
-0.00505645
-0.00233813
0.01787103
0.00191192
0.01037738
0.02526440
0.00298432
0.00721966
0.00967458
0.01748912
-0.00825940
-0.00436593
0.00563496
0.02772820
0.01030703
-0.00340571
-0.02719305
-0.00550842
0.02205982
0.01025810
-0.00060270
0.00288074
0.01521908
0.00068831
0.01799664
-0.02706021
-0.00241846
0.01282170
0.00906803
0.02168052
0.01982892
0.01183814
0.00605554
-0.03045739
0.02392121
0.00702949
-0.00813414
-0.00446426
-0.01534374
0.00506685
0.02635494
0.00525672
-0.01220621
-0.00409222
-0.01250916
-0.01982789
-0.01201050
-0.01394226
0.01090872
0.00515222
-0.01911014
-0.00596789
-0.00887733
-0.00141495
0.01308582
0.00643310
0.00853130
-0.03174879
0.00212866
-0.00685027
-0.00539167
0.02015737
0.01634452
-0.01731696
-0.00001294
0.01607714
0.01302665
-0.00068929
0.00541339
-0.03990168
-0.01240575
-0.03494616
0.00057827
-0.01864600
0.01227080
0.01397642
0.00514344
0.01251616
0.00579305
-0.00163515
0.00736213
0.01065558
-0.00138785
-0.00019237
-0.00139232
-0.01369628
0.02409308
0.01244555
0.00098271
0.01223054
-0.02348843
-0.01816777
-0.03596329
0.00370733
-0.01306797
0.00987189
-0.00368975
0.00431898
0.01666879
0.02823801
0.01998613
-0.00523018
-0.00732586
0.00372714
-0.00691759
0.00222618
-0.01503223
-0.01748845
-0.02032156
-0.00615781
-0.02723649
0.01166587
0.01254756
0.00941675
0.00860137
0.00202666
-0.00259922
0.01434889
-0.00972969
0.00595373
0.00591043
-0.01321395
0.00026599
-0.02522353
-0.00927422
-0.02093592
-0.02071983
-0.01779411
0.00413775
0.01106981
0.00254657
0.00947774
-0.03567230
0.02021225
-0.00848238
0.00464264
0.00967425
-0.00186450
-0.00033972
-0.01813928
-0.01287103
-0.00966958
-0.00431974
-0.01229431
0.01180013
0.03009268
-0.00717516
-0.03398724
0.01293313
0.00412052
-0.01196590
-0.00147700
-0.01233764
-0.00032436
0.02091849
-0.00887584
-0.00383752
0.00972824
0.00266031
0.01355381
0.00887450
0.00090062
0.00351005
0.00866070
0.01933748
0.01135441
0.01915110
0.00146297
-0.00515215
0.00851327
-0.01615159
0.00190481
-0.00150688
-0.01022301
-0.00463486
-0.00125918
0.01916151
